%YAML:1.0
---
opencv_ml_svm:
   format: 3
   svmType: C_SVC
   kernel:
      type: LINEAR
   C: 1.
   term_criteria: { epsilon:1.1920928955078125e-07, iterations:1000 }
   var_count: 1
   class_count: 4
   class_labels: !!opencv-matrix
      rows: 4
      cols: 1
      dt: i
      data: [ 0, 1, 2, 3 ]
   sv_total: 6
   support_vectors:
      - [ -0.388482392 ]
      - [ 0.362857163 ]
      - [ 1.56463563 ]
      - [ 0.751339555 ]
      - [ 1.95311797 ]
      - [ 1.20177841 ]
   uncompressed_sv_total: 184
   uncompressed_support_vectors:
      - [ 0.135410652 ]
      - [ 0. ]
      - [ 0.259805292 ]
      - [ 0.00704059703 ]
      - [ 0.158695906 ]
      - [ 0.108194947 ]
      - [ 0. ]
      - [ 0. ]
      - [ 0.257444769 ]
      - [ 0. ]
      - [ 0. ]
      - [ 0.26083225 ]
      - [ 0. ]
      - [ 0. ]
      - [ 0. ]
      - [ 0. ]
      - [ 0. ]
      - [ 0.00285535282 ]
      - [ 0. ]
      - [ 0. ]
      - [ 0.184072986 ]
      - [ 0.257444769 ]
      - [ 0. ]
      - [ 0. ]
      - [ 0.313054472 ]
      - [ 0.259645641 ]
      - [ 0.00285535282 ]
      - [ 0. ]
      - [ 0. ]
      - [ 0. ]
      - [ 0.184072986 ]
      - [ 0. ]
      - [ 0. ]
      - [ 0. ]
      - [ 0.261182547 ]
      - [ 0.259645641 ]
      - [ 0.280418545 ]
      - [ 0.296161592 ]
      - [ 0.199504495 ]
      - [ 0.172119215 ]
      - [ 0. ]
      - [ 0. ]
      - [ 0. ]
      - [ 0. ]
      - [ 0.102293298 ]
      - [ 0.0928186774 ]
      - [ 0. ]
      - [ 0. ]
      - [ 0.305694193 ]
      - [ 0.234271243 ]
      - [ 0. ]
      - [ 0.184006989 ]
      - [ 0.240035906 ]
      - [ 0. ]
      - [ 0.108452246 ]
      - [ 0.352929503 ]
      - [ 0.263227433 ]
      - [ 0. ]
      - [ 0. ]
      - [ 0.051976677 ]
      - [ 0.313457221 ]
      - [ 0. ]
      - [ 0. ]
      - [ 0. ]
      - [ 0.0481810719 ]
      - [ 0.0178212579 ]
      - [ 0.0549785979 ]
      - [ 0. ]
      - [ 0.0809182227 ]
      - [ 0. ]
      - [ 0.199117824 ]
      - [ 0. ]
      - [ 0.280167639 ]
      - [ 0.075005427 ]
      - [ 0. ]
      - [ 0.298741519 ]
      - [ 0.204748139 ]
      - [ 0. ]
      - [ 0.352929384 ]
      - [ 0.0418302864 ]
      - [ 0. ]
      - [ 0. ]
      - [ 0.00207526074 ]
      - [ 0. ]
      - [ 0.211121023 ]
      - [ 0. ]
      - [ 0.204833478 ]
      - [ 0.120808654 ]
      - [ 0. ]
      - [ 0. ]
      - [ 0. ]
      - [ 0.196723178 ]
      - [ 0. ]
      - [ 0. ]
      - [ 0.296996504 ]
      - [ 0. ]
      - [ 0. ]
      - [ 0.0943608209 ]
      - [ 0.322276145 ]
      - [ 0.265917897 ]
      - [ 0. ]
      - [ 0.134138063 ]
      - [ 0.19896315 ]
      - [ 0.0540654957 ]
      - [ 0. ]
      - [ 0. ]
      - [ 0. ]
      - [ 0.156195462 ]
      - [ 0.0943608209 ]
      - [ 0. ]
      - [ 0. ]
      - [ 0. ]
      - [ 0. ]
      - [ 0. ]
      - [ 0. ]
      - [ 0.0307922959 ]
      - [ 0.335850865 ]
      - [ 0. ]
      - [ 0. ]
      - [ 0. ]
      - [ 0. ]
      - [ 0.296996504 ]
      - [ 0.232340589 ]
      - [ 0.000199402304 ]
      - [ 0.350192398 ]
      - [ 0. ]
      - [ 0. ]
      - [ 0.223850608 ]
      - [ 0. ]
      - [ 0. ]
      - [ 0.261736006 ]
      - [ 0. ]
      - [ 0. ]
      - [ 0.0307922959 ]
      - [ 0. ]
      - [ 0. ]
      - [ 0. ]
      - [ 0.312687486 ]
      - [ 0.277810574 ]
      - [ 0. ]
      - [ 0. ]
      - [ 0.0557357743 ]
      - [ 0. ]
      - [ 0. ]
      - [ 0. ]
      - [ 0. ]
      - [ 0. ]
      - [ 0. ]
      - [ 0.195343956 ]
      - [ 0. ]
      - [ 0.121029183 ]
      - [ 0.00351061602 ]
      - [ 0.005343467 ]
      - [ 0. ]
      - [ 0. ]
      - [ 0. ]
      - [ 0. ]
      - [ 0. ]
      - [ 0. ]
      - [ 0. ]
      - [ 0.31618914 ]
      - [ 0. ]
      - [ 0.0775914267 ]
      - [ 0. ]
      - [ 0.000399663812 ]
      - [ 0. ]
      - [ 0.280460626 ]
      - [ 0. ]
      - [ 0. ]
      - [ 0.339863539 ]
      - [ 0. ]
      - [ 0.184605643 ]
      - [ 0. ]
      - [ 0.298544228 ]
      - [ 0.13255018 ]
      - [ 0. ]
      - [ 0. ]
      - [ 0.0278875381 ]
      - [ 0.00317486376 ]
      - [ 0. ]
      - [ 0.0261113513 ]
      - [ 0. ]
      - [ 0.144782588 ]
      - [ 0. ]
   decision_functions:
      -
         sv_count: 1
         rho: -0.068553453107597306
         alpha: [ 1. ]
         index: [ 0 ]
      -
         sv_count: 1
         rho: 0.056797027460561367
         alpha: [ 1. ]
         index: [ 1 ]
      -
         sv_count: 1
         rho: 0.24490808166592615
         alpha: [ 1. ]
         index: [ 2 ]
      -
         sv_count: 1
         rho: 0.1325849552085856
         alpha: [ 1. ]
         index: [ 3 ]
      -
         sv_count: 1
         rho: 0.34465647984325187
         alpha: [ 1. ]
         index: [ 4 ]
      -
         sv_count: 1
         rho: 0.21042684013809776
         alpha: [ 1. ]
         index: [ 5 ]
