%YAML:1.0
---
opencv_ml_svm:
   format: 3
   svmType: C_SVC
   kernel:
      type: LINEAR
   C: 1.
   term_criteria: { epsilon:1.1920928955078125e-07, iterations:1000 }
   var_count: 1
   class_count: 4
   class_labels: !!opencv-matrix
      rows: 4
      cols: 1
      dt: i
      data: [ 0, 1, 2, 3 ]
   sv_total: 6
   support_vectors:
      - [ -0.629342616 ]
      - [ 0.279885978 ]
      - [ 1.3613745 ]
      - [ 1.27146196 ]
      - [ 2.35295057 ]
      - [ 1.08148849 ]
   uncompressed_sv_total: 183
   uncompressed_support_vectors:
      - [ 0.29819569 ]
      - [ 0.136648387 ]
      - [ 0.10173703 ]
      - [ 0. ]
      - [ 0.0985221565 ]
      - [ 0. ]
      - [ 0. ]
      - [ 0.191655248 ]
      - [ 0. ]
      - [ 0.255918235 ]
      - [ 0.25818333 ]
      - [ 0. ]
      - [ 0.259169132 ]
      - [ 0. ]
      - [ 0.256281823 ]
      - [ 0. ]
      - [ 0. ]
      - [ 0. ]
      - [ 0. ]
      - [ 0.0244752355 ]
      - [ 0.198954225 ]
      - [ 0.00285535282 ]
      - [ 0.138551161 ]
      - [ 0. ]
      - [ 0. ]
      - [ 0.222935289 ]
      - [ 0.104666419 ]
      - [ 0. ]
      - [ 0.261182547 ]
      - [ 0.170052931 ]
      - [ 0. ]
      - [ 0.280418545 ]
      - [ 0. ]
      - [ 0. ]
      - [ 0. ]
      - [ 0. ]
      - [ 0. ]
      - [ 0. ]
      - [ 0. ]
      - [ 0.0928186774 ]
      - [ 0.164080262 ]
      - [ 0. ]
      - [ 0.310134381 ]
      - [ 0.00640577311 ]
      - [ 0. ]
      - [ 0. ]
      - [ 0.305694193 ]
      - [ 0.234271243 ]
      - [ 0. ]
      - [ 0.362233371 ]
      - [ 0.184006989 ]
      - [ 0.240035906 ]
      - [ 0.108452246 ]
      - [ 0.263227433 ]
      - [ 0.21363017 ]
      - [ 0.279080719 ]
      - [ 0. ]
      - [ 0. ]
      - [ 0.051976677 ]
      - [ 0.313457221 ]
      - [ 0. ]
      - [ 0. ]
      - [ 0. ]
      - [ 0.0481810719 ]
      - [ 0.0595401376 ]
      - [ 0.0178212579 ]
      - [ 0.0549785979 ]
      - [ 0. ]
      - [ 0.0809182227 ]
      - [ 0. ]
      - [ 0.199117824 ]
      - [ 0. ]
      - [ 0.075005427 ]
      - [ 0. ]
      - [ 0.298741519 ]
      - [ 0.204748139 ]
      - [ 0. ]
      - [ 0. ]
      - [ 0. ]
      - [ 0.352929384 ]
      - [ 0.00207526074 ]
      - [ 0. ]
      - [ 0. ]
      - [ 0.352929503 ]
      - [ 0. ]
      - [ 0. ]
      - [ 0.204833478 ]
      - [ 0.120808654 ]
      - [ 0. ]
      - [ 0. ]
      - [ 0.196723178 ]
      - [ 0.310908079 ]
      - [ 0.318401366 ]
      - [ 0.222287357 ]
      - [ 0.150638178 ]
      - [ 0.027914485 ]
      - [ 0. ]
      - [ 0.191905931 ]
      - [ 0. ]
      - [ 0.134138063 ]
      - [ 0.0540654957 ]
      - [ 0.337432712 ]
      - [ 0. ]
      - [ 0.000194379289 ]
      - [ 0.313908309 ]
      - [ 0.260629356 ]
      - [ 0. ]
      - [ 0. ]
      - [ 0. ]
      - [ 0. ]
      - [ 0. ]
      - [ 0.0554818809 ]
      - [ 0.233750254 ]
      - [ 0. ]
      - [ 0. ]
      - [ 0. ]
      - [ 0. ]
      - [ 0.233750254 ]
      - [ 0. ]
      - [ 0.350192398 ]
      - [ 0. ]
      - [ 0. ]
      - [ 0. ]
      - [ 0. ]
      - [ 0. ]
      - [ 0. ]
      - [ 0. ]
      - [ 0. ]
      - [ 0. ]
      - [ 0.23445791 ]
      - [ 0. ]
      - [ 0. ]
      - [ 0. ]
      - [ 0. ]
      - [ 0.123899452 ]
      - [ 0. ]
      - [ 0. ]
      - [ 0. ]
      - [ 0.281729341 ]
      - [ 0. ]
      - [ 0. ]
      - [ 0. ]
      - [ 0. ]
      - [ 0. ]
      - [ 0. ]
      - [ 0. ]
      - [ 0. ]
      - [ 0.00351061602 ]
      - [ 0.005343467 ]
      - [ 0. ]
      - [ 0. ]
      - [ 0. ]
      - [ 0. ]
      - [ 0. ]
      - [ 0.298267126 ]
      - [ 0. ]
      - [ 0.017582316 ]
      - [ 0. ]
      - [ 0. ]
      - [ 0.316022575 ]
      - [ 0.0521646254 ]
      - [ 0. ]
      - [ 0.280460626 ]
      - [ 0. ]
      - [ 0.339863539 ]
      - [ 0. ]
      - [ 0.184605643 ]
      - [ 0.203069687 ]
      - [ 0. ]
      - [ 0.13255018 ]
      - [ 0. ]
      - [ 0. ]
      - [ 0. ]
      - [ 0. ]
      - [ 0.0182095654 ]
      - [ 0.00317486376 ]
      - [ 0. ]
      - [ 0. ]
      - [ 0. ]
      - [ 0.0780180916 ]
      - [ 0.113112517 ]
      - [ 0.144782588 ]
      - [ 0. ]
   decision_functions:
      -
         sv_count: 1
         rho: 0.77495875972090289
         alpha: [ 1. ]
         index: [ 0 ]
      -
         sv_count: 1
         rho: 1.
         alpha: [ 1. ]
         index: [ 1 ]
      -
         sv_count: 1
         rho: 1.
         alpha: [ 1. ]
         index: [ 2 ]
      -
         sv_count: 1
         rho: 0.2302829624095466
         alpha: [ 1. ]
         index: [ 3 ]
      -
         sv_count: 1
         rho: 0.42615858113276772
         alpha: [ 1. ]
         index: [ 4 ]
      -
         sv_count: 1
         rho: 0.18936452439083951
         alpha: [ 1. ]
         index: [ 5 ]
